digraph Tree {
node [shape=box] ;
0 [label="alcohol <= 10.55\nentropy = 1.7\nsamples = 959\nvalue = [7, 30, 407, 392, 111, 12]"] ;
1 [label="total sulfur dioxide <= 54.5\nentropy = 1.389\nsamples = 598\nvalue = [5, 21, 345, 208, 17, 2]"] ;
0 -> 1 [labeldistance=2.5, labelangle=45, headlabel="True"] ;
2 [label="volatile acidity <= 0.572\nentropy = 1.546\nsamples = 382\nvalue = [5, 16, 187, 155, 17, 2]"] ;
1 -> 2 ;
3 [label="sulphates <= 0.695\nentropy = 1.435\nsamples = 213\nvalue = [0, 4, 82, 112, 13, 2]"] ;
2 -> 3 ;
4 [label="free sulfur dioxide <= 30.5\nentropy = 1.33\nsamples = 145\nvalue = [0, 3, 70, 66, 6, 0]"] ;
3 -> 4 ;
5 [label="sulphates <= 0.495\nentropy = 1.281\nsamples = 143\nvalue = [0, 3, 70, 66, 4, 0]"] ;
4 -> 5 ;
6 [label="alcohol <= 9.35\nentropy = 1.16\nsamples = 17\nvalue = [0, 2, 12, 3, 0, 0]"] ;
5 -> 6 ;
7 [label="entropy = 0.0\nsamples = 2\nvalue = [0, 2, 0, 0, 0, 0]"] ;
6 -> 7 ;
8 [label="pH <= 3.13\nentropy = 0.722\nsamples = 15\nvalue = [0, 0, 12, 3, 0, 0]"] ;
6 -> 8 ;
9 [label="entropy = 0.0\nsamples = 2\nvalue = [0, 0, 0, 2, 0, 0]"] ;
8 -> 9 ;
10 [label="free sulfur dioxide <= 24.5\nentropy = 0.391\nsamples = 13\nvalue = [0, 0, 12, 1, 0, 0]"] ;
8 -> 10 ;
11 [label="entropy = 0.0\nsamples = 12\nvalue = [0, 0, 12, 0, 0, 0]"] ;
10 -> 11 ;
12 [label="entropy = 0.0\nsamples = 1\nvalue = [0, 0, 0, 1, 0, 0]"] ;
10 -> 12 ;
13 [label="fixed acidity <= 6.55\nentropy = 1.229\nsamples = 126\nvalue = [0, 1, 58, 63, 4, 0]"] ;
5 -> 13 ;
14 [label="entropy = 0.0\nsamples = 7\nvalue = [0, 0, 7, 0, 0, 0]"] ;
13 -> 14 ;
15 [label="density <= 0.996\nentropy = 1.232\nsamples = 119\nvalue = [0, 1, 51, 63, 4, 0]"] ;
13 -> 15 ;
16 [label="entropy = 0.0\nsamples = 11\nvalue = [0, 0, 0, 11, 0, 0]"] ;
15 -> 16 ;
17 [label="fixed acidity <= 12.45\nentropy = 1.258\nsamples = 108\nvalue = [0, 1, 51, 52, 4, 0]"] ;
15 -> 17 ;
18 [label="citric acid <= 0.485\nentropy = 1.195\nsamples = 105\nvalue = [0, 0, 51, 50, 4, 0]"] ;
17 -> 18 ;
19 [label="density <= 0.997\nentropy = 1.17\nsamples = 89\nvalue = [0, 0, 38, 48, 3, 0]"] ;
18 -> 19 ;
20 [label="volatile acidity <= 0.555\nentropy = 0.952\nsamples = 35\nvalue = [0, 0, 22, 13, 0, 0]"] ;
19 -> 20 ;
21 [label="citric acid <= 0.14\nentropy = 0.987\nsamples = 30\nvalue = [0, 0, 17, 13, 0, 0]"] ;
20 -> 21 ;
22 [label="volatile acidity <= 0.525\nentropy = 0.764\nsamples = 9\nvalue = [0, 0, 2, 7, 0, 0]"] ;
21 -> 22 ;
23 [label="fixed acidity <= 6.95\nentropy = 0.918\nsamples = 3\nvalue = [0, 0, 2, 1, 0, 0]"] ;
22 -> 23 ;
24 [label="entropy = 0.0\nsamples = 1\nvalue = [0, 0, 0, 1, 0, 0]"] ;
23 -> 24 ;
25 [label="entropy = 0.0\nsamples = 2\nvalue = [0, 0, 2, 0, 0, 0]"] ;
23 -> 25 ;
26 [label="entropy = 0.0\nsamples = 6\nvalue = [0, 0, 0, 6, 0, 0]"] ;
22 -> 26 ;
27 [label="sulphates <= 0.615\nentropy = 0.863\nsamples = 21\nvalue = [0, 0, 15, 6, 0, 0]"] ;
21 -> 27 ;
28 [label="citric acid <= 0.245\nentropy = 0.985\nsamples = 14\nvalue = [0, 0, 8, 6, 0, 0]"] ;
27 -> 28 ;
29 [label="citric acid <= 0.17\nentropy = 0.592\nsamples = 7\nvalue = [0, 0, 6, 1, 0, 0]"] ;
28 -> 29 ;
30 [label="sulphates <= 0.55\nentropy = 1.0\nsamples = 2\nvalue = [0, 0, 1, 1, 0, 0]"] ;
29 -> 30 ;
31 [label="entropy = 0.0\nsamples = 1\nvalue = [0, 0, 0, 1, 0, 0]"] ;
30 -> 31 ;
32 [label="entropy = 0.0\nsamples = 1\nvalue = [0, 0, 1, 0, 0, 0]"] ;
30 -> 32 ;
33 [label="entropy = 0.0\nsamples = 5\nvalue = [0, 0, 5, 0, 0, 0]"] ;
29 -> 33 ;
34 [label="citric acid <= 0.33\nentropy = 0.863\nsamples = 7\nvalue = [0, 0, 2, 5, 0, 0]"] ;
28 -> 34 ;
35 [label="entropy = 0.0\nsamples = 4\nvalue = [0, 0, 0, 4, 0, 0]"] ;
34 -> 35 ;
36 [label="sulphates <= 0.555\nentropy = 0.918\nsamples = 3\nvalue = [0, 0, 2, 1, 0, 0]"] ;
34 -> 36 ;
37 [label="entropy = 0.0\nsamples = 2\nvalue = [0, 0, 2, 0, 0, 0]"] ;
36 -> 37 ;
38 [label="entropy = 0.0\nsamples = 1\nvalue = [0, 0, 0, 1, 0, 0]"] ;
36 -> 38 ;
39 [label="entropy = 0.0\nsamples = 7\nvalue = [0, 0, 7, 0, 0, 0]"] ;
27 -> 39 ;
40 [label="entropy = 0.0\nsamples = 5\nvalue = [0, 0, 5, 0, 0, 0]"] ;
20 -> 40 ;
41 [label="chlorides <= 0.08\nentropy = 1.157\nsamples = 54\nvalue = [0, 0, 16, 35, 3, 0]"] ;
19 -> 41 ;
42 [label="chlorides <= 0.074\nentropy = 0.998\nsamples = 19\nvalue = [0, 0, 10, 9, 0, 0]"] ;
41 -> 42 ;
43 [label="volatile acidity <= 0.535\nentropy = 0.971\nsamples = 15\nvalue = [0, 0, 6, 9, 0, 0]"] ;
42 -> 43 ;
44 [label="pH <= 3.265\nentropy = 0.89\nsamples = 13\nvalue = [0, 0, 4, 9, 0, 0]"] ;
43 -> 44 ;
45 [label="citric acid <= 0.405\nentropy = 0.991\nsamples = 9\nvalue = [0, 0, 4, 5, 0, 0]"] ;
44 -> 45 ;
46 [label="chlorides <= 0.069\nentropy = 0.918\nsamples = 6\nvalue = [0, 0, 4, 2, 0, 0]"] ;
45 -> 46 ;
47 [label="entropy = 0.0\nsamples = 4\nvalue = [0, 0, 4, 0, 0, 0]"] ;
46 -> 47 ;
48 [label="entropy = 0.0\nsamples = 2\nvalue = [0, 0, 0, 2, 0, 0]"] ;
46 -> 48 ;
49 [label="entropy = 0.0\nsamples = 3\nvalue = [0, 0, 0, 3, 0, 0]"] ;
45 -> 49 ;
50 [label="entropy = 0.0\nsamples = 4\nvalue = [0, 0, 0, 4, 0, 0]"] ;
44 -> 50 ;
51 [label="entropy = 0.0\nsamples = 2\nvalue = [0, 0, 2, 0, 0, 0]"] ;
43 -> 51 ;
52 [label="entropy = 0.0\nsamples = 4\nvalue = [0, 0, 4, 0, 0, 0]"] ;
42 -> 52 ;
53 [label="sulphates <= 0.565\nentropy = 1.059\nsamples = 35\nvalue = [0, 0, 6, 26, 3, 0]"] ;
41 -> 53 ;
54 [label="fixed acidity <= 9.05\nentropy = 0.954\nsamples = 8\nvalue = [0, 0, 5, 3, 0, 0]"] ;
53 -> 54 ;
55 [label="entropy = 0.0\nsamples = 3\nvalue = [0, 0, 0, 3, 0, 0]"] ;
54 -> 55 ;
56 [label="entropy = 0.0\nsamples = 5\nvalue = [0, 0, 5, 0, 0, 0]"] ;
54 -> 56 ;
57 [label="total sulfur dioxide <= 44.0\nentropy = 0.725\nsamples = 27\nvalue = [0, 0, 1, 23, 3, 0]"] ;
53 -> 57 ;
58 [label="density <= 0.997\nentropy = 0.286\nsamples = 20\nvalue = [0, 0, 0, 19, 1, 0]"] ;
57 -> 58 ;
59 [label="sulphates <= 0.625\nentropy = 0.918\nsamples = 3\nvalue = [0, 0, 0, 2, 1, 0]"] ;
58 -> 59 ;
60 [label="entropy = 0.0\nsamples = 1\nvalue = [0, 0, 0, 0, 1, 0]"] ;
59 -> 60 ;
61 [label="entropy = 0.0\nsamples = 2\nvalue = [0, 0, 0, 2, 0, 0]"] ;
59 -> 61 ;
62 [label="entropy = 0.0\nsamples = 17\nvalue = [0, 0, 0, 17, 0, 0]"] ;
58 -> 62 ;
63 [label="pH <= 3.43\nentropy = 1.379\nsamples = 7\nvalue = [0, 0, 1, 4, 2, 0]"] ;
57 -> 63 ;
64 [label="pH <= 3.275\nentropy = 0.918\nsamples = 6\nvalue = [0, 0, 0, 4, 2, 0]"] ;
63 -> 64 ;
65 [label="citric acid <= 0.285\nentropy = 0.918\nsamples = 3\nvalue = [0, 0, 0, 1, 2, 0]"] ;
64 -> 65 ;
66 [label="entropy = 0.0\nsamples = 1\nvalue = [0, 0, 0, 1, 0, 0]"] ;
65 -> 66 ;
67 [label="entropy = 0.0\nsamples = 2\nvalue = [0, 0, 0, 0, 2, 0]"] ;
65 -> 67 ;
68 [label="entropy = 0.0\nsamples = 3\nvalue = [0, 0, 0, 3, 0, 0]"] ;
64 -> 68 ;
69 [label="entropy = 0.0\nsamples = 1\nvalue = [0, 0, 1, 0, 0, 0]"] ;
63 -> 69 ;
70 [label="pH <= 2.97\nentropy = 0.868\nsamples = 16\nvalue = [0, 0, 13, 2, 1, 0]"] ;
18 -> 70 ;
71 [label="entropy = 0.0\nsamples = 1\nvalue = [0, 0, 0, 0, 1, 0]"] ;
70 -> 71 ;
72 [label="volatile acidity <= 0.365\nentropy = 0.567\nsamples = 15\nvalue = [0, 0, 13, 2, 0, 0]"] ;
70 -> 72 ;
73 [label="fixed acidity <= 10.5\nentropy = 0.971\nsamples = 5\nvalue = [0, 0, 3, 2, 0, 0]"] ;
72 -> 73 ;
74 [label="entropy = 0.0\nsamples = 3\nvalue = [0, 0, 3, 0, 0, 0]"] ;
73 -> 74 ;
75 [label="entropy = 0.0\nsamples = 2\nvalue = [0, 0, 0, 2, 0, 0]"] ;
73 -> 75 ;
76 [label="entropy = 0.0\nsamples = 10\nvalue = [0, 0, 10, 0, 0, 0]"] ;
72 -> 76 ;
77 [label="free sulfur dioxide <= 19.0\nentropy = 0.918\nsamples = 3\nvalue = [0, 1, 0, 2, 0, 0]"] ;
17 -> 77 ;
78 [label="entropy = 0.0\nsamples = 2\nvalue = [0, 0, 0, 2, 0, 0]"] ;
77 -> 78 ;
79 [label="entropy = 0.0\nsamples = 1\nvalue = [0, 1, 0, 0, 0, 0]"] ;
77 -> 79 ;
80 [label="entropy = 0.0\nsamples = 2\nvalue = [0, 0, 0, 0, 2, 0]"] ;
4 -> 80 ;
81 [label="volatile acidity <= 0.425\nentropy = 1.4\nsamples = 68\nvalue = [0, 1, 12, 46, 7, 2]"] ;
3 -> 81 ;
82 [label="chlorides <= 0.076\nentropy = 1.332\nsamples = 42\nvalue = [0, 0, 4, 29, 7, 2]"] ;
81 -> 82 ;
83 [label="fixed acidity <= 11.7\nentropy = 1.125\nsamples = 21\nvalue = [0, 0, 0, 15, 4, 2]"] ;
82 -> 83 ;
84 [label="density <= 0.996\nentropy = 0.669\nsamples = 16\nvalue = [0, 0, 0, 14, 1, 1]"] ;
83 -> 84 ;
85 [label="fixed acidity <= 6.2\nentropy = 1.585\nsamples = 3\nvalue = [0, 0, 0, 1, 1, 1]"] ;
84 -> 85 ;
86 [label="entropy = 0.0\nsamples = 1\nvalue = [0, 0, 0, 1, 0, 0]"] ;
85 -> 86 ;
87 [label="fixed acidity <= 6.8\nentropy = 1.0\nsamples = 2\nvalue = [0, 0, 0, 0, 1, 1]"] ;
85 -> 87 ;
88 [label="entropy = 0.0\nsamples = 1\nvalue = [0, 0, 0, 0, 1, 0]"] ;
87 -> 88 ;
89 [label="entropy = 0.0\nsamples = 1\nvalue = [0, 0, 0, 0, 0, 1]"] ;
87 -> 89 ;
90 [label="entropy = 0.0\nsamples = 13\nvalue = [0, 0, 0, 13, 0, 0]"] ;
84 -> 90 ;
91 [label="volatile acidity <= 0.285\nentropy = 1.371\nsamples = 5\nvalue = [0, 0, 0, 1, 3, 1]"] ;
83 -> 91 ;
92 [label="entropy = 0.0\nsamples = 3\nvalue = [0, 0, 0, 0, 3, 0]"] ;
91 -> 92 ;
93 [label="alcohol <= 9.1\nentropy = 1.0\nsamples = 2\nvalue = [0, 0, 0, 1, 0, 1]"] ;
91 -> 93 ;
94 [label="entropy = 0.0\nsamples = 1\nvalue = [0, 0, 0, 1, 0, 0]"] ;
93 -> 94 ;
95 [label="entropy = 0.0\nsamples = 1\nvalue = [0, 0, 0, 0, 0, 1]"] ;
93 -> 95 ;
96 [label="residual sugar <= 3.25\nentropy = 1.247\nsamples = 21\nvalue = [0, 0, 4, 14, 3, 0]"] ;
82 -> 96 ;
97 [label="total sulfur dioxide <= 26.5\nentropy = 0.787\nsamples = 17\nvalue = [0, 0, 4, 13, 0, 0]"] ;
96 -> 97 ;
98 [label="volatile acidity <= 0.375\nentropy = 0.991\nsamples = 9\nvalue = [0, 0, 4, 5, 0, 0]"] ;
97 -> 98 ;
99 [label="pH <= 3.075\nentropy = 0.918\nsamples = 6\nvalue = [0, 0, 4, 2, 0, 0]"] ;
98 -> 99 ;
100 [label="entropy = 0.0\nsamples = 2\nvalue = [0, 0, 0, 2, 0, 0]"] ;
99 -> 100 ;
101 [label="entropy = 0.0\nsamples = 4\nvalue = [0, 0, 4, 0, 0, 0]"] ;
99 -> 101 ;
102 [label="entropy = 0.0\nsamples = 3\nvalue = [0, 0, 0, 3, 0, 0]"] ;
98 -> 102 ;
103 [label="entropy = 0.0\nsamples = 8\nvalue = [0, 0, 0, 8, 0, 0]"] ;
97 -> 103 ;
104 [label="volatile acidity <= 0.225\nentropy = 0.811\nsamples = 4\nvalue = [0, 0, 0, 1, 3, 0]"] ;
96 -> 104 ;
105 [label="entropy = 0.0\nsamples = 1\nvalue = [0, 0, 0, 1, 0, 0]"] ;
104 -> 105 ;
106 [label="entropy = 0.0\nsamples = 3\nvalue = [0, 0, 0, 0, 3, 0]"] ;
104 -> 106 ;
107 [label="free sulfur dioxide <= 32.5\nentropy = 1.105\nsamples = 26\nvalue = [0, 1, 8, 17, 0, 0]"] ;
81 -> 107 ;
108 [label="alcohol <= 9.55\nentropy = 0.904\nsamples = 25\nvalue = [0, 0, 8, 17, 0, 0]"] ;
107 -> 108 ;
109 [label="pH <= 3.425\nentropy = 1.0\nsamples = 14\nvalue = [0, 0, 7, 7, 0, 0]"] ;
108 -> 109 ;
110 [label="citric acid <= 0.235\nentropy = 0.764\nsamples = 9\nvalue = [0, 0, 7, 2, 0, 0]"] ;
109 -> 110 ;
111 [label="entropy = 0.0\nsamples = 5\nvalue = [0, 0, 5, 0, 0, 0]"] ;
110 -> 111 ;
112 [label="density <= 0.996\nentropy = 1.0\nsamples = 4\nvalue = [0, 0, 2, 2, 0, 0]"] ;
110 -> 112 ;
113 [label="entropy = 0.0\nsamples = 1\nvalue = [0, 0, 1, 0, 0, 0]"] ;
112 -> 113 ;
114 [label="pH <= 3.415\nentropy = 0.918\nsamples = 3\nvalue = [0, 0, 1, 2, 0, 0]"] ;
112 -> 114 ;
115 [label="entropy = 0.0\nsamples = 2\nvalue = [0, 0, 0, 2, 0, 0]"] ;
114 -> 115 ;
116 [label="entropy = 0.0\nsamples = 1\nvalue = [0, 0, 1, 0, 0, 0]"] ;
114 -> 116 ;
117 [label="entropy = 0.0\nsamples = 5\nvalue = [0, 0, 0, 5, 0, 0]"] ;
109 -> 117 ;
118 [label="citric acid <= 0.465\nentropy = 0.439\nsamples = 11\nvalue = [0, 0, 1, 10, 0, 0]"] ;
108 -> 118 ;
119 [label="entropy = 0.0\nsamples = 10\nvalue = [0, 0, 0, 10, 0, 0]"] ;
118 -> 119 ;
120 [label="entropy = 0.0\nsamples = 1\nvalue = [0, 0, 1, 0, 0, 0]"] ;
118 -> 120 ;
121 [label="entropy = 0.0\nsamples = 1\nvalue = [0, 1, 0, 0, 0, 0]"] ;
107 -> 121 ;
122 [label="sulphates <= 0.575\nentropy = 1.478\nsamples = 169\nvalue = [5, 12, 105, 43, 4, 0]"] ;
2 -> 122 ;
123 [label="total sulfur dioxide <= 26.5\nentropy = 1.379\nsamples = 82\nvalue = [3, 10, 58, 9, 2, 0]"] ;
122 -> 123 ;
124 [label="volatile acidity <= 0.743\nentropy = 1.295\nsamples = 38\nvalue = [0, 8, 26, 2, 2, 0]"] ;
123 -> 124 ;
125 [label="volatile acidity <= 0.652\nentropy = 0.988\nsamples = 21\nvalue = [0, 1, 17, 1, 2, 0]"] ;
124 -> 125 ;
126 [label="free sulfur dioxide <= 7.5\nentropy = 1.842\nsamples = 7\nvalue = [0, 1, 3, 1, 2, 0]"] ;
125 -> 126 ;
127 [label="volatile acidity <= 0.605\nentropy = 1.371\nsamples = 5\nvalue = [0, 1, 3, 1, 0, 0]"] ;
126 -> 127 ;
128 [label="entropy = 0.0\nsamples = 3\nvalue = [0, 0, 3, 0, 0, 0]"] ;
127 -> 128 ;
129 [label="residual sugar <= 3.55\nentropy = 1.0\nsamples = 2\nvalue = [0, 1, 0, 1, 0, 0]"] ;
127 -> 129 ;
130 [label="entropy = 0.0\nsamples = 1\nvalue = [0, 1, 0, 0, 0, 0]"] ;
129 -> 130 ;
131 [label="entropy = 0.0\nsamples = 1\nvalue = [0, 0, 0, 1, 0, 0]"] ;
129 -> 131 ;
132 [label="entropy = 0.0\nsamples = 2\nvalue = [0, 0, 0, 0, 2, 0]"] ;
126 -> 132 ;
133 [label="entropy = 0.0\nsamples = 14\nvalue = [0, 0, 14, 0, 0, 0]"] ;
125 -> 133 ;
134 [label="residual sugar <= 1.95\nentropy = 1.253\nsamples = 17\nvalue = [0, 7, 9, 1, 0, 0]"] ;
124 -> 134 ;
135 [label="chlorides <= 0.054\nentropy = 0.65\nsamples = 6\nvalue = [0, 5, 0, 1, 0, 0]"] ;
134 -> 135 ;
136 [label="entropy = 0.0\nsamples = 1\nvalue = [0, 0, 0, 1, 0, 0]"] ;
135 -> 136 ;
137 [label="entropy = 0.0\nsamples = 5\nvalue = [0, 5, 0, 0, 0, 0]"] ;
135 -> 137 ;
138 [label="total sulfur dioxide <= 22.5\nentropy = 0.684\nsamples = 11\nvalue = [0, 2, 9, 0, 0, 0]"] ;
134 -> 138 ;
139 [label="entropy = 0.0\nsamples = 9\nvalue = [0, 0, 9, 0, 0, 0]"] ;
138 -> 139 ;
140 [label="entropy = 0.0\nsamples = 2\nvalue = [0, 2, 0, 0, 0, 0]"] ;
138 -> 140 ;
141 [label="pH <= 3.33\nentropy = 1.223\nsamples = 44\nvalue = [3, 2, 32, 7, 0, 0]"] ;
123 -> 141 ;
142 [label="pH <= 3.295\nentropy = 1.428\nsamples = 29\nvalue = [3, 1, 18, 7, 0, 0]"] ;
141 -> 142 ;
143 [label="density <= 1.0\nentropy = 0.832\nsamples = 22\nvalue = [1, 0, 18, 3, 0, 0]"] ;
142 -> 143 ;
144 [label="chlorides <= 0.08\nentropy = 0.592\nsamples = 21\nvalue = [0, 0, 18, 3, 0, 0]"] ;
143 -> 144 ;
145 [label="citric acid <= 0.19\nentropy = 0.918\nsamples = 9\nvalue = [0, 0, 6, 3, 0, 0]"] ;
144 -> 145 ;
146 [label="fixed acidity <= 7.8\nentropy = 0.811\nsamples = 4\nvalue = [0, 0, 1, 3, 0, 0]"] ;
145 -> 146 ;
147 [label="entropy = 0.0\nsamples = 1\nvalue = [0, 0, 1, 0, 0, 0]"] ;
146 -> 147 ;
148 [label="entropy = 0.0\nsamples = 3\nvalue = [0, 0, 0, 3, 0, 0]"] ;
146 -> 148 ;
149 [label="entropy = 0.0\nsamples = 5\nvalue = [0, 0, 5, 0, 0, 0]"] ;
145 -> 149 ;
150 [label="entropy = 0.0\nsamples = 12\nvalue = [0, 0, 12, 0, 0, 0]"] ;
144 -> 150 ;
151 [label="entropy = 0.0\nsamples = 1\nvalue = [1, 0, 0, 0, 0, 0]"] ;
143 -> 151 ;
152 [label="fixed acidity <= 7.75\nentropy = 1.379\nsamples = 7\nvalue = [2, 1, 0, 4, 0, 0]"] ;
142 -> 152 ;
153 [label="entropy = 0.0\nsamples = 2\nvalue = [2, 0, 0, 0, 0, 0]"] ;
152 -> 153 ;
154 [label="citric acid <= 0.32\nentropy = 0.722\nsamples = 5\nvalue = [0, 1, 0, 4, 0, 0]"] ;
152 -> 154 ;
155 [label="entropy = 0.0\nsamples = 4\nvalue = [0, 0, 0, 4, 0, 0]"] ;
154 -> 155 ;
156 [label="entropy = 0.0\nsamples = 1\nvalue = [0, 1, 0, 0, 0, 0]"] ;
154 -> 156 ;
157 [label="alcohol <= 9.15\nentropy = 0.353\nsamples = 15\nvalue = [0, 1, 14, 0, 0, 0]"] ;
141 -> 157 ;
158 [label="entropy = 0.0\nsamples = 1\nvalue = [0, 1, 0, 0, 0, 0]"] ;
157 -> 158 ;
159 [label="entropy = 0.0\nsamples = 14\nvalue = [0, 0, 14, 0, 0, 0]"] ;
157 -> 159 ;
160 [label="fixed acidity <= 10.55\nentropy = 1.385\nsamples = 87\nvalue = [2, 2, 47, 34, 2, 0]"] ;
122 -> 160 ;
161 [label="total sulfur dioxide <= 17.5\nentropy = 1.194\nsamples = 80\nvalue = [2, 1, 47, 30, 0, 0]"] ;
160 -> 161 ;
162 [label="residual sugar <= 1.55\nentropy = 1.252\nsamples = 12\nvalue = [2, 0, 2, 8, 0, 0]"] ;
161 -> 162 ;
163 [label="entropy = 0.0\nsamples = 2\nvalue = [0, 0, 2, 0, 0, 0]"] ;
162 -> 163 ;
164 [label="sulphates <= 0.625\nentropy = 0.722\nsamples = 10\nvalue = [2, 0, 0, 8, 0, 0]"] ;
162 -> 164 ;
165 [label="entropy = 0.0\nsamples = 6\nvalue = [0, 0, 0, 6, 0, 0]"] ;
164 -> 165 ;
166 [label="sulphates <= 0.64\nentropy = 1.0\nsamples = 4\nvalue = [2, 0, 0, 2, 0, 0]"] ;
164 -> 166 ;
167 [label="entropy = 0.0\nsamples = 2\nvalue = [2, 0, 0, 0, 0, 0]"] ;
166 -> 167 ;
168 [label="entropy = 0.0\nsamples = 2\nvalue = [0, 0, 0, 2, 0, 0]"] ;
166 -> 168 ;
169 [label="pH <= 3.275\nentropy = 1.01\nsamples = 68\nvalue = [0, 1, 45, 22, 0, 0]"] ;
161 -> 169 ;
170 [label="residual sugar <= 1.4\nentropy = 0.614\nsamples = 18\nvalue = [0, 1, 16, 1, 0, 0]"] ;
169 -> 170 ;
171 [label="entropy = 0.0\nsamples = 1\nvalue = [0, 1, 0, 0, 0, 0]"] ;
170 -> 171 ;
172 [label="volatile acidity <= 0.725\nentropy = 0.323\nsamples = 17\nvalue = [0, 0, 16, 1, 0, 0]"] ;
170 -> 172 ;
173 [label="entropy = 0.0\nsamples = 14\nvalue = [0, 0, 14, 0, 0, 0]"] ;
172 -> 173 ;
174 [label="pH <= 3.245\nentropy = 0.918\nsamples = 3\nvalue = [0, 0, 2, 1, 0, 0]"] ;
172 -> 174 ;
175 [label="entropy = 0.0\nsamples = 1\nvalue = [0, 0, 0, 1, 0, 0]"] ;
174 -> 175 ;
176 [label="entropy = 0.0\nsamples = 2\nvalue = [0, 0, 2, 0, 0, 0]"] ;
174 -> 176 ;
177 [label="density <= 0.998\nentropy = 0.981\nsamples = 50\nvalue = [0, 0, 29, 21, 0, 0]"] ;
169 -> 177 ;
178 [label="chlorides <= 0.075\nentropy = 0.901\nsamples = 41\nvalue = [0, 0, 28, 13, 0, 0]"] ;
177 -> 178 ;
179 [label="alcohol <= 9.3\nentropy = 0.954\nsamples = 16\nvalue = [0, 0, 6, 10, 0, 0]"] ;
178 -> 179 ;
180 [label="entropy = 0.0\nsamples = 2\nvalue = [0, 0, 2, 0, 0, 0]"] ;
179 -> 180 ;
181 [label="fixed acidity <= 7.25\nentropy = 0.863\nsamples = 14\nvalue = [0, 0, 4, 10, 0, 0]"] ;
179 -> 181 ;
182 [label="total sulfur dioxide <= 45.0\nentropy = 0.65\nsamples = 12\nvalue = [0, 0, 2, 10, 0, 0]"] ;
181 -> 182 ;
183 [label="entropy = 0.0\nsamples = 9\nvalue = [0, 0, 0, 9, 0, 0]"] ;
182 -> 183 ;
184 [label="residual sugar <= 1.95\nentropy = 0.918\nsamples = 3\nvalue = [0, 0, 2, 1, 0, 0]"] ;
182 -> 184 ;
185 [label="entropy = 0.0\nsamples = 2\nvalue = [0, 0, 2, 0, 0, 0]"] ;
184 -> 185 ;
186 [label="entropy = 0.0\nsamples = 1\nvalue = [0, 0, 0, 1, 0, 0]"] ;
184 -> 186 ;
187 [label="entropy = 0.0\nsamples = 2\nvalue = [0, 0, 2, 0, 0, 0]"] ;
181 -> 187 ;
188 [label="sulphates <= 0.605\nentropy = 0.529\nsamples = 25\nvalue = [0, 0, 22, 3, 0, 0]"] ;
178 -> 188 ;
189 [label="chlorides <= 0.098\nentropy = 0.918\nsamples = 9\nvalue = [0, 0, 6, 3, 0, 0]"] ;
188 -> 189 ;
190 [label="pH <= 3.395\nentropy = 0.971\nsamples = 5\nvalue = [0, 0, 2, 3, 0, 0]"] ;
189 -> 190 ;
191 [label="entropy = 0.0\nsamples = 3\nvalue = [0, 0, 0, 3, 0, 0]"] ;
190 -> 191 ;
192 [label="entropy = 0.0\nsamples = 2\nvalue = [0, 0, 2, 0, 0, 0]"] ;
190 -> 192 ;
193 [label="entropy = 0.0\nsamples = 4\nvalue = [0, 0, 4, 0, 0, 0]"] ;
189 -> 193 ;
194 [label="entropy = 0.0\nsamples = 16\nvalue = [0, 0, 16, 0, 0, 0]"] ;
188 -> 194 ;
195 [label="residual sugar <= 2.95\nentropy = 0.503\nsamples = 9\nvalue = [0, 0, 1, 8, 0, 0]"] ;
177 -> 195 ;
196 [label="entropy = 0.0\nsamples = 8\nvalue = [0, 0, 0, 8, 0, 0]"] ;
195 -> 196 ;
197 [label="entropy = 0.0\nsamples = 1\nvalue = [0, 0, 1, 0, 0, 0]"] ;
195 -> 197 ;
198 [label="fixed acidity <= 12.75\nentropy = 1.379\nsamples = 7\nvalue = [0, 1, 0, 4, 2, 0]"] ;
160 -> 198 ;
199 [label="residual sugar <= 1.65\nentropy = 0.722\nsamples = 5\nvalue = [0, 1, 0, 4, 0, 0]"] ;
198 -> 199 ;
200 [label="entropy = 0.0\nsamples = 1\nvalue = [0, 1, 0, 0, 0, 0]"] ;
199 -> 200 ;
201 [label="entropy = 0.0\nsamples = 4\nvalue = [0, 0, 0, 4, 0, 0]"] ;
199 -> 201 ;
202 [label="entropy = 0.0\nsamples = 2\nvalue = [0, 0, 0, 0, 2, 0]"] ;
198 -> 202 ;
203 [label="total sulfur dioxide <= 95.5\nentropy = 0.953\nsamples = 216\nvalue = [0, 5, 158, 53, 0, 0]"] ;
1 -> 203 ;
204 [label="pH <= 3.595\nentropy = 1.096\nsamples = 148\nvalue = [0, 5, 96, 47, 0, 0]"] ;
203 -> 204 ;
205 [label="pH <= 2.82\nentropy = 1.042\nsamples = 145\nvalue = [0, 3, 95, 47, 0, 0]"] ;
204 -> 205 ;
206 [label="entropy = 0.0\nsamples = 1\nvalue = [0, 1, 0, 0, 0, 0]"] ;
205 -> 206 ;
207 [label="chlorides <= 0.098\nentropy = 1.009\nsamples = 144\nvalue = [0, 2, 95, 47, 0, 0]"] ;
205 -> 207 ;
208 [label="sulphates <= 0.525\nentropy = 1.071\nsamples = 112\nvalue = [0, 2, 68, 42, 0, 0]"] ;
207 -> 208 ;
209 [label="chlorides <= 0.081\nentropy = 0.634\nsamples = 25\nvalue = [0, 0, 21, 4, 0, 0]"] ;
208 -> 209 ;
210 [label="density <= 0.997\nentropy = 0.946\nsamples = 11\nvalue = [0, 0, 7, 4, 0, 0]"] ;
209 -> 210 ;
211 [label="free sulfur dioxide <= 17.5\nentropy = 0.544\nsamples = 8\nvalue = [0, 0, 7, 1, 0, 0]"] ;
210 -> 211 ;
212 [label="entropy = 0.0\nsamples = 1\nvalue = [0, 0, 0, 1, 0, 0]"] ;
211 -> 212 ;
213 [label="entropy = 0.0\nsamples = 7\nvalue = [0, 0, 7, 0, 0, 0]"] ;
211 -> 213 ;
214 [label="entropy = 0.0\nsamples = 3\nvalue = [0, 0, 0, 3, 0, 0]"] ;
210 -> 214 ;
215 [label="entropy = 0.0\nsamples = 14\nvalue = [0, 0, 14, 0, 0, 0]"] ;
209 -> 215 ;
216 [label="volatile acidity <= 0.365\nentropy = 1.127\nsamples = 87\nvalue = [0, 2, 47, 38, 0, 0]"] ;
208 -> 216 ;
217 [label="residual sugar <= 2.25\nentropy = 0.779\nsamples = 13\nvalue = [0, 0, 3, 10, 0, 0]"] ;
216 -> 217 ;
218 [label="entropy = 0.0\nsamples = 6\nvalue = [0, 0, 0, 6, 0, 0]"] ;
217 -> 218 ;
219 [label="volatile acidity <= 0.33\nentropy = 0.985\nsamples = 7\nvalue = [0, 0, 3, 4, 0, 0]"] ;
217 -> 219 ;
220 [label="sulphates <= 0.86\nentropy = 0.811\nsamples = 4\nvalue = [0, 0, 3, 1, 0, 0]"] ;
219 -> 220 ;
221 [label="entropy = 0.0\nsamples = 3\nvalue = [0, 0, 3, 0, 0, 0]"] ;
220 -> 221 ;
222 [label="entropy = 0.0\nsamples = 1\nvalue = [0, 0, 0, 1, 0, 0]"] ;
220 -> 222 ;
223 [label="entropy = 0.0\nsamples = 3\nvalue = [0, 0, 0, 3, 0, 0]"] ;
219 -> 223 ;
224 [label="sulphates <= 0.76\nentropy = 1.117\nsamples = 74\nvalue = [0, 2, 44, 28, 0, 0]"] ;
216 -> 224 ;
225 [label="pH <= 3.345\nentropy = 1.155\nsamples = 66\nvalue = [0, 2, 36, 28, 0, 0]"] ;
224 -> 225 ;
226 [label="density <= 1.0\nentropy = 1.252\nsamples = 33\nvalue = [0, 2, 13, 18, 0, 0]"] ;
225 -> 226 ;
227 [label="density <= 0.998\nentropy = 1.231\nsamples = 30\nvalue = [0, 2, 10, 18, 0, 0]"] ;
226 -> 227 ;
228 [label="fixed acidity <= 8.7\nentropy = 1.338\nsamples = 23\nvalue = [0, 2, 10, 11, 0, 0]"] ;
227 -> 228 ;
229 [label="fixed acidity <= 7.85\nentropy = 1.3\nsamples = 18\nvalue = [0, 2, 5, 11, 0, 0]"] ;
228 -> 229 ;
230 [label="citric acid <= 0.455\nentropy = 1.349\nsamples = 11\nvalue = [0, 1, 5, 5, 0, 0]"] ;
229 -> 230 ;
231 [label="total sulfur dioxide <= 70.0\nentropy = 1.0\nsamples = 10\nvalue = [0, 0, 5, 5, 0, 0]"] ;
230 -> 231 ;
232 [label="entropy = 0.0\nsamples = 3\nvalue = [0, 0, 3, 0, 0, 0]"] ;
231 -> 232 ;
233 [label="volatile acidity <= 0.605\nentropy = 0.863\nsamples = 7\nvalue = [0, 0, 2, 5, 0, 0]"] ;
231 -> 233 ;
234 [label="entropy = 0.0\nsamples = 4\nvalue = [0, 0, 0, 4, 0, 0]"] ;
233 -> 234 ;
235 [label="residual sugar <= 1.85\nentropy = 0.918\nsamples = 3\nvalue = [0, 0, 2, 1, 0, 0]"] ;
233 -> 235 ;
236 [label="entropy = 0.0\nsamples = 1\nvalue = [0, 0, 0, 1, 0, 0]"] ;
235 -> 236 ;
237 [label="entropy = 0.0\nsamples = 2\nvalue = [0, 0, 2, 0, 0, 0]"] ;
235 -> 237 ;
238 [label="entropy = 0.0\nsamples = 1\nvalue = [0, 1, 0, 0, 0, 0]"] ;
230 -> 238 ;
239 [label="citric acid <= 0.205\nentropy = 0.592\nsamples = 7\nvalue = [0, 1, 0, 6, 0, 0]"] ;
229 -> 239 ;
240 [label="entropy = 0.0\nsamples = 1\nvalue = [0, 1, 0, 0, 0, 0]"] ;
239 -> 240 ;
241 [label="entropy = 0.0\nsamples = 6\nvalue = [0, 0, 0, 6, 0, 0]"] ;
239 -> 241 ;
242 [label="entropy = 0.0\nsamples = 5\nvalue = [0, 0, 5, 0, 0, 0]"] ;
228 -> 242 ;
243 [label="entropy = 0.0\nsamples = 7\nvalue = [0, 0, 0, 7, 0, 0]"] ;
227 -> 243 ;
244 [label="entropy = 0.0\nsamples = 3\nvalue = [0, 0, 3, 0, 0, 0]"] ;
226 -> 244 ;
245 [label="citric acid <= 0.295\nentropy = 0.885\nsamples = 33\nvalue = [0, 0, 23, 10, 0, 0]"] ;
225 -> 245 ;
246 [label="free sulfur dioxide <= 26.5\nentropy = 0.988\nsamples = 23\nvalue = [0, 0, 13, 10, 0, 0]"] ;
245 -> 246 ;
247 [label="chlorides <= 0.079\nentropy = 0.934\nsamples = 20\nvalue = [0, 0, 13, 7, 0, 0]"] ;
246 -> 247 ;
248 [label="residual sugar <= 3.4\nentropy = 0.439\nsamples = 11\nvalue = [0, 0, 10, 1, 0, 0]"] ;
247 -> 248 ;
249 [label="entropy = 0.0\nsamples = 10\nvalue = [0, 0, 10, 0, 0, 0]"] ;
248 -> 249 ;
250 [label="entropy = 0.0\nsamples = 1\nvalue = [0, 0, 0, 1, 0, 0]"] ;
248 -> 250 ;
251 [label="pH <= 3.435\nentropy = 0.918\nsamples = 9\nvalue = [0, 0, 3, 6, 0, 0]"] ;
247 -> 251 ;
252 [label="entropy = 0.0\nsamples = 3\nvalue = [0, 0, 3, 0, 0, 0]"] ;
251 -> 252 ;
253 [label="entropy = 0.0\nsamples = 6\nvalue = [0, 0, 0, 6, 0, 0]"] ;
251 -> 253 ;
254 [label="entropy = 0.0\nsamples = 3\nvalue = [0, 0, 0, 3, 0, 0]"] ;
246 -> 254 ;
255 [label="entropy = 0.0\nsamples = 10\nvalue = [0, 0, 10, 0, 0, 0]"] ;
245 -> 255 ;
256 [label="entropy = 0.0\nsamples = 8\nvalue = [0, 0, 8, 0, 0, 0]"] ;
224 -> 256 ;
257 [label="chlorides <= 0.209\nentropy = 0.625\nsamples = 32\nvalue = [0, 0, 27, 5, 0, 0]"] ;
207 -> 257 ;
258 [label="density <= 0.996\nentropy = 0.276\nsamples = 21\nvalue = [0, 0, 20, 1, 0, 0]"] ;
257 -> 258 ;
259 [label="entropy = 0.0\nsamples = 1\nvalue = [0, 0, 0, 1, 0, 0]"] ;
258 -> 259 ;
260 [label="entropy = 0.0\nsamples = 20\nvalue = [0, 0, 20, 0, 0, 0]"] ;
258 -> 260 ;
261 [label="fixed acidity <= 9.0\nentropy = 0.946\nsamples = 11\nvalue = [0, 0, 7, 4, 0, 0]"] ;
257 -> 261 ;
262 [label="chlorides <= 0.351\nentropy = 0.764\nsamples = 9\nvalue = [0, 0, 7, 2, 0, 0]"] ;
261 -> 262 ;
263 [label="residual sugar <= 1.75\nentropy = 0.918\nsamples = 3\nvalue = [0, 0, 1, 2, 0, 0]"] ;
262 -> 263 ;
264 [label="entropy = 0.0\nsamples = 1\nvalue = [0, 0, 1, 0, 0, 0]"] ;
263 -> 264 ;
265 [label="entropy = 0.0\nsamples = 2\nvalue = [0, 0, 0, 2, 0, 0]"] ;
263 -> 265 ;
266 [label="entropy = 0.0\nsamples = 6\nvalue = [0, 0, 6, 0, 0, 0]"] ;
262 -> 266 ;
267 [label="entropy = 0.0\nsamples = 2\nvalue = [0, 0, 0, 2, 0, 0]"] ;
261 -> 267 ;
268 [label="volatile acidity <= 0.778\nentropy = 0.918\nsamples = 3\nvalue = [0, 2, 1, 0, 0, 0]"] ;
204 -> 268 ;
269 [label="entropy = 0.0\nsamples = 1\nvalue = [0, 0, 1, 0, 0, 0]"] ;
268 -> 269 ;
270 [label="entropy = 0.0\nsamples = 2\nvalue = [0, 2, 0, 0, 0, 0]"] ;
268 -> 270 ;
271 [label="pH <= 3.085\nentropy = 0.431\nsamples = 68\nvalue = [0, 0, 62, 6, 0, 0]"] ;
203 -> 271 ;
272 [label="entropy = 0.0\nsamples = 3\nvalue = [0, 0, 0, 3, 0, 0]"] ;
271 -> 272 ;
273 [label="chlorides <= 0.068\nentropy = 0.27\nsamples = 65\nvalue = [0, 0, 62, 3, 0, 0]"] ;
271 -> 273 ;
274 [label="entropy = 0.0\nsamples = 2\nvalue = [0, 0, 0, 2, 0, 0]"] ;
273 -> 274 ;
275 [label="volatile acidity <= 0.765\nentropy = 0.118\nsamples = 63\nvalue = [0, 0, 62, 1, 0, 0]"] ;
273 -> 275 ;
276 [label="entropy = 0.0\nsamples = 58\nvalue = [0, 0, 58, 0, 0, 0]"] ;
275 -> 276 ;
277 [label="sulphates <= 0.525\nentropy = 0.722\nsamples = 5\nvalue = [0, 0, 4, 1, 0, 0]"] ;
275 -> 277 ;
278 [label="entropy = 0.0\nsamples = 1\nvalue = [0, 0, 0, 1, 0, 0]"] ;
277 -> 278 ;
279 [label="entropy = 0.0\nsamples = 4\nvalue = [0, 0, 4, 0, 0, 0]"] ;
277 -> 279 ;
280 [label="citric acid <= 0.335\nentropy = 1.755\nsamples = 361\nvalue = [2, 9, 62, 184, 94, 10]"] ;
0 -> 280 [labeldistance=2.5, labelangle=-45, headlabel="False"] ;
281 [label="sulphates <= 0.585\nentropy = 1.607\nsamples = 187\nvalue = [2, 9, 38, 113, 24, 1]"] ;
280 -> 281 ;
282 [label="alcohol <= 11.65\nentropy = 1.734\nsamples = 73\nvalue = [2, 7, 25, 35, 4, 0]"] ;
281 -> 282 ;
283 [label="volatile acidity <= 1.0\nentropy = 1.652\nsamples = 48\nvalue = [2, 7, 19, 20, 0, 0]"] ;
282 -> 283 ;
284 [label="residual sugar <= 3.675\nentropy = 1.437\nsamples = 44\nvalue = [0, 6, 18, 20, 0, 0]"] ;
283 -> 284 ;
285 [label="volatile acidity <= 0.49\nentropy = 1.244\nsamples = 37\nvalue = [0, 2, 16, 19, 0, 0]"] ;
284 -> 285 ;
286 [label="total sulfur dioxide <= 37.0\nentropy = 1.459\nsamples = 6\nvalue = [0, 2, 3, 1, 0, 0]"] ;
285 -> 286 ;
287 [label="residual sugar <= 2.25\nentropy = 0.971\nsamples = 5\nvalue = [0, 2, 3, 0, 0, 0]"] ;
286 -> 287 ;
288 [label="fixed acidity <= 6.55\nentropy = 0.918\nsamples = 3\nvalue = [0, 2, 1, 0, 0, 0]"] ;
287 -> 288 ;
289 [label="entropy = 0.0\nsamples = 1\nvalue = [0, 0, 1, 0, 0, 0]"] ;
288 -> 289 ;
290 [label="entropy = 0.0\nsamples = 2\nvalue = [0, 2, 0, 0, 0, 0]"] ;
288 -> 290 ;
291 [label="entropy = 0.0\nsamples = 2\nvalue = [0, 0, 2, 0, 0, 0]"] ;
287 -> 291 ;
292 [label="entropy = 0.0\nsamples = 1\nvalue = [0, 0, 0, 1, 0, 0]"] ;
286 -> 292 ;
293 [label="fixed acidity <= 8.05\nentropy = 0.981\nsamples = 31\nvalue = [0, 0, 13, 18, 0, 0]"] ;
285 -> 293 ;
294 [label="residual sugar <= 1.75\nentropy = 0.904\nsamples = 25\nvalue = [0, 0, 8, 17, 0, 0]"] ;
293 -> 294 ;
295 [label="entropy = 0.0\nsamples = 2\nvalue = [0, 0, 2, 0, 0, 0]"] ;
294 -> 295 ;
296 [label="sulphates <= 0.565\nentropy = 0.828\nsamples = 23\nvalue = [0, 0, 6, 17, 0, 0]"] ;
294 -> 296 ;
297 [label="density <= 0.995\nentropy = 0.971\nsamples = 15\nvalue = [0, 0, 6, 9, 0, 0]"] ;
296 -> 297 ;
298 [label="density <= 0.995\nentropy = 0.722\nsamples = 10\nvalue = [0, 0, 2, 8, 0, 0]"] ;
297 -> 298 ;
299 [label="pH <= 3.395\nentropy = 1.0\nsamples = 4\nvalue = [0, 0, 2, 2, 0, 0]"] ;
298 -> 299 ;
300 [label="entropy = 0.0\nsamples = 2\nvalue = [0, 0, 0, 2, 0, 0]"] ;
299 -> 300 ;
301 [label="entropy = 0.0\nsamples = 2\nvalue = [0, 0, 2, 0, 0, 0]"] ;
299 -> 301 ;
302 [label="entropy = 0.0\nsamples = 6\nvalue = [0, 0, 0, 6, 0, 0]"] ;
298 -> 302 ;
303 [label="density <= 0.997\nentropy = 0.722\nsamples = 5\nvalue = [0, 0, 4, 1, 0, 0]"] ;
297 -> 303 ;
304 [label="entropy = 0.0\nsamples = 4\nvalue = [0, 0, 4, 0, 0, 0]"] ;
303 -> 304 ;
305 [label="entropy = 0.0\nsamples = 1\nvalue = [0, 0, 0, 1, 0, 0]"] ;
303 -> 305 ;
306 [label="entropy = 0.0\nsamples = 8\nvalue = [0, 0, 0, 8, 0, 0]"] ;
296 -> 306 ;
307 [label="residual sugar <= 1.95\nentropy = 0.65\nsamples = 6\nvalue = [0, 0, 5, 1, 0, 0]"] ;
293 -> 307 ;
308 [label="entropy = 0.0\nsamples = 1\nvalue = [0, 0, 0, 1, 0, 0]"] ;
307 -> 308 ;
309 [label="entropy = 0.0\nsamples = 5\nvalue = [0, 0, 5, 0, 0, 0]"] ;
307 -> 309 ;
310 [label="sulphates <= 0.495\nentropy = 1.379\nsamples = 7\nvalue = [0, 4, 2, 1, 0, 0]"] ;
284 -> 310 ;
311 [label="alcohol <= 10.85\nentropy = 0.918\nsamples = 3\nvalue = [0, 0, 2, 1, 0, 0]"] ;
310 -> 311 ;
312 [label="entropy = 0.0\nsamples = 1\nvalue = [0, 0, 0, 1, 0, 0]"] ;
311 -> 312 ;
313 [label="entropy = 0.0\nsamples = 2\nvalue = [0, 0, 2, 0, 0, 0]"] ;
311 -> 313 ;
314 [label="entropy = 0.0\nsamples = 4\nvalue = [0, 4, 0, 0, 0, 0]"] ;
310 -> 314 ;
315 [label="total sulfur dioxide <= 11.5\nentropy = 1.5\nsamples = 4\nvalue = [2, 1, 1, 0, 0, 0]"] ;
283 -> 315 ;
316 [label="entropy = 0.0\nsamples = 2\nvalue = [2, 0, 0, 0, 0, 0]"] ;
315 -> 316 ;
317 [label="fixed acidity <= 7.2\nentropy = 1.0\nsamples = 2\nvalue = [0, 1, 1, 0, 0, 0]"] ;
315 -> 317 ;
318 [label="entropy = 0.0\nsamples = 1\nvalue = [0, 1, 0, 0, 0, 0]"] ;
317 -> 318 ;
319 [label="entropy = 0.0\nsamples = 1\nvalue = [0, 0, 1, 0, 0, 0]"] ;
317 -> 319 ;
320 [label="total sulfur dioxide <= 27.5\nentropy = 1.359\nsamples = 25\nvalue = [0, 0, 6, 15, 4, 0]"] ;
282 -> 320 ;
321 [label="pH <= 3.485\nentropy = 1.295\nsamples = 10\nvalue = [0, 0, 6, 3, 1, 0]"] ;
320 -> 321 ;
322 [label="free sulfur dioxide <= 4.5\nentropy = 1.371\nsamples = 5\nvalue = [0, 0, 1, 3, 1, 0]"] ;
321 -> 322 ;
323 [label="entropy = 0.0\nsamples = 1\nvalue = [0, 0, 0, 0, 1, 0]"] ;
322 -> 323 ;
324 [label="residual sugar <= 2.975\nentropy = 0.811\nsamples = 4\nvalue = [0, 0, 1, 3, 0, 0]"] ;
322 -> 324 ;
325 [label="entropy = 0.0\nsamples = 3\nvalue = [0, 0, 0, 3, 0, 0]"] ;
324 -> 325 ;
326 [label="entropy = 0.0\nsamples = 1\nvalue = [0, 0, 1, 0, 0, 0]"] ;
324 -> 326 ;
327 [label="entropy = 0.0\nsamples = 5\nvalue = [0, 0, 5, 0, 0, 0]"] ;
321 -> 327 ;
328 [label="free sulfur dioxide <= 31.5\nentropy = 0.722\nsamples = 15\nvalue = [0, 0, 0, 12, 3, 0]"] ;
320 -> 328 ;
329 [label="entropy = 0.0\nsamples = 12\nvalue = [0, 0, 0, 12, 0, 0]"] ;
328 -> 329 ;
330 [label="entropy = 0.0\nsamples = 3\nvalue = [0, 0, 0, 0, 3, 0]"] ;
328 -> 330 ;
331 [label="alcohol <= 11.55\nentropy = 1.335\nsamples = 114\nvalue = [0, 2, 13, 78, 20, 1]"] ;
281 -> 331 ;
332 [label="total sulfur dioxide <= 57.0\nentropy = 1.261\nsamples = 74\nvalue = [0, 2, 13, 52, 7, 0]"] ;
331 -> 332 ;
333 [label="citric acid <= 0.05\nentropy = 1.074\nsamples = 59\nvalue = [0, 2, 4, 46, 7, 0]"] ;
332 -> 333 ;
334 [label="entropy = 0.0\nsamples = 18\nvalue = [0, 0, 0, 18, 0, 0]"] ;
333 -> 334 ;
335 [label="pH <= 3.485\nentropy = 1.351\nsamples = 41\nvalue = [0, 2, 4, 28, 7, 0]"] ;
333 -> 335 ;
336 [label="citric acid <= 0.065\nentropy = 1.115\nsamples = 35\nvalue = [0, 0, 3, 25, 7, 0]"] ;
335 -> 336 ;
337 [label="fixed acidity <= 7.3\nentropy = 0.918\nsamples = 3\nvalue = [0, 0, 1, 0, 2, 0]"] ;
336 -> 337 ;
338 [label="entropy = 0.0\nsamples = 2\nvalue = [0, 0, 0, 0, 2, 0]"] ;
337 -> 338 ;
339 [label="entropy = 0.0\nsamples = 1\nvalue = [0, 0, 1, 0, 0, 0]"] ;
337 -> 339 ;
340 [label="pH <= 3.255\nentropy = 0.947\nsamples = 32\nvalue = [0, 0, 2, 25, 5, 0]"] ;
336 -> 340 ;
341 [label="volatile acidity <= 0.41\nentropy = 1.5\nsamples = 4\nvalue = [0, 0, 2, 1, 1, 0]"] ;
340 -> 341 ;
342 [label="entropy = 0.0\nsamples = 1\nvalue = [0, 0, 0, 0, 1, 0]"] ;
341 -> 342 ;
343 [label="total sulfur dioxide <= 45.5\nentropy = 0.918\nsamples = 3\nvalue = [0, 0, 2, 1, 0, 0]"] ;
341 -> 343 ;
344 [label="entropy = 0.0\nsamples = 2\nvalue = [0, 0, 2, 0, 0, 0]"] ;
343 -> 344 ;
345 [label="entropy = 0.0\nsamples = 1\nvalue = [0, 0, 0, 1, 0, 0]"] ;
343 -> 345 ;
346 [label="sulphates <= 0.85\nentropy = 0.592\nsamples = 28\nvalue = [0, 0, 0, 24, 4, 0]"] ;
340 -> 346 ;
347 [label="pH <= 3.435\nentropy = 0.391\nsamples = 26\nvalue = [0, 0, 0, 24, 2, 0]"] ;
346 -> 347 ;
348 [label="entropy = 0.0\nsamples = 22\nvalue = [0, 0, 0, 22, 0, 0]"] ;
347 -> 348 ;
349 [label="sulphates <= 0.695\nentropy = 1.0\nsamples = 4\nvalue = [0, 0, 0, 2, 2, 0]"] ;
347 -> 349 ;
350 [label="entropy = 0.0\nsamples = 2\nvalue = [0, 0, 0, 2, 0, 0]"] ;
349 -> 350 ;
351 [label="entropy = 0.0\nsamples = 2\nvalue = [0, 0, 0, 0, 2, 0]"] ;
349 -> 351 ;
352 [label="entropy = 0.0\nsamples = 2\nvalue = [0, 0, 0, 0, 2, 0]"] ;
346 -> 352 ;
353 [label="fixed acidity <= 6.05\nentropy = 1.459\nsamples = 6\nvalue = [0, 2, 1, 3, 0, 0]"] ;
335 -> 353 ;
354 [label="entropy = 0.0\nsamples = 3\nvalue = [0, 0, 0, 3, 0, 0]"] ;
353 -> 354 ;
355 [label="chlorides <= 0.056\nentropy = 0.918\nsamples = 3\nvalue = [0, 2, 1, 0, 0, 0]"] ;
353 -> 355 ;
356 [label="entropy = 0.0\nsamples = 1\nvalue = [0, 0, 1, 0, 0, 0]"] ;
355 -> 356 ;
357 [label="entropy = 0.0\nsamples = 2\nvalue = [0, 2, 0, 0, 0, 0]"] ;
355 -> 357 ;
358 [label="free sulfur dioxide <= 23.5\nentropy = 0.971\nsamples = 15\nvalue = [0, 0, 9, 6, 0, 0]"] ;
332 -> 358 ;
359 [label="entropy = 0.0\nsamples = 7\nvalue = [0, 0, 7, 0, 0, 0]"] ;
358 -> 359 ;
360 [label="pH <= 3.375\nentropy = 0.811\nsamples = 8\nvalue = [0, 0, 2, 6, 0, 0]"] ;
358 -> 360 ;
361 [label="entropy = 0.0\nsamples = 5\nvalue = [0, 0, 0, 5, 0, 0]"] ;
360 -> 361 ;
362 [label="free sulfur dioxide <= 41.0\nentropy = 0.918\nsamples = 3\nvalue = [0, 0, 2, 1, 0, 0]"] ;
360 -> 362 ;
363 [label="entropy = 0.0\nsamples = 2\nvalue = [0, 0, 2, 0, 0, 0]"] ;
362 -> 363 ;
364 [label="entropy = 0.0\nsamples = 1\nvalue = [0, 0, 0, 1, 0, 0]"] ;
362 -> 364 ;
365 [label="citric acid <= 0.115\nentropy = 1.064\nsamples = 40\nvalue = [0, 0, 0, 26, 13, 1]"] ;
331 -> 365 ;
366 [label="volatile acidity <= 0.4\nentropy = 0.94\nsamples = 14\nvalue = [0, 0, 0, 5, 9, 0]"] ;
365 -> 366 ;
367 [label="entropy = 0.0\nsamples = 2\nvalue = [0, 0, 0, 2, 0, 0]"] ;
366 -> 367 ;
368 [label="density <= 0.994\nentropy = 0.811\nsamples = 12\nvalue = [0, 0, 0, 3, 9, 0]"] ;
366 -> 368 ;
369 [label="entropy = 0.0\nsamples = 8\nvalue = [0, 0, 0, 0, 8, 0]"] ;
368 -> 369 ;
370 [label="volatile acidity <= 0.615\nentropy = 0.811\nsamples = 4\nvalue = [0, 0, 0, 3, 1, 0]"] ;
368 -> 370 ;
371 [label="entropy = 0.0\nsamples = 3\nvalue = [0, 0, 0, 3, 0, 0]"] ;
370 -> 371 ;
372 [label="entropy = 0.0\nsamples = 1\nvalue = [0, 0, 0, 0, 1, 0]"] ;
370 -> 372 ;
373 [label="chlorides <= 0.068\nentropy = 0.845\nsamples = 26\nvalue = [0, 0, 0, 21, 4, 1]"] ;
365 -> 373 ;
374 [label="sulphates <= 0.73\nentropy = 1.322\nsamples = 11\nvalue = [0, 0, 0, 6, 4, 1]"] ;
373 -> 374 ;
375 [label="alcohol <= 11.75\nentropy = 0.592\nsamples = 7\nvalue = [0, 0, 0, 6, 1, 0]"] ;
374 -> 375 ;
376 [label="entropy = 0.0\nsamples = 1\nvalue = [0, 0, 0, 0, 1, 0]"] ;
375 -> 376 ;
377 [label="entropy = 0.0\nsamples = 6\nvalue = [0, 0, 0, 6, 0, 0]"] ;
375 -> 377 ;
378 [label="free sulfur dioxide <= 17.5\nentropy = 0.811\nsamples = 4\nvalue = [0, 0, 0, 0, 3, 1]"] ;
374 -> 378 ;
379 [label="entropy = 0.0\nsamples = 3\nvalue = [0, 0, 0, 0, 3, 0]"] ;
378 -> 379 ;
380 [label="entropy = 0.0\nsamples = 1\nvalue = [0, 0, 0, 0, 0, 1]"] ;
378 -> 380 ;
381 [label="entropy = 0.0\nsamples = 15\nvalue = [0, 0, 0, 15, 0, 0]"] ;
373 -> 381 ;
382 [label="alcohol <= 11.55\nentropy = 1.671\nsamples = 174\nvalue = [0, 0, 24, 71, 70, 9]"] ;
280 -> 382 ;
383 [label="sulphates <= 0.685\nentropy = 1.639\nsamples = 96\nvalue = [0, 0, 21, 43, 30, 2]"] ;
382 -> 383 ;
384 [label="total sulfur dioxide <= 10.5\nentropy = 1.733\nsamples = 41\nvalue = [0, 0, 16, 15, 8, 2]"] ;
383 -> 384 ;
385 [label="residual sugar <= 4.35\nentropy = 0.863\nsamples = 7\nvalue = [0, 0, 2, 0, 5, 0]"] ;
384 -> 385 ;
386 [label="entropy = 0.0\nsamples = 5\nvalue = [0, 0, 0, 0, 5, 0]"] ;
385 -> 386 ;
387 [label="entropy = 0.0\nsamples = 2\nvalue = [0, 0, 2, 0, 0, 0]"] ;
385 -> 387 ;
388 [label="fixed acidity <= 10.45\nentropy = 1.597\nsamples = 34\nvalue = [0, 0, 14, 15, 3, 2]"] ;
384 -> 388 ;
389 [label="free sulfur dioxide <= 19.0\nentropy = 1.0\nsamples = 22\nvalue = [0, 0, 11, 11, 0, 0]"] ;
388 -> 389 ;
390 [label="fixed acidity <= 8.05\nentropy = 0.964\nsamples = 18\nvalue = [0, 0, 7, 11, 0, 0]"] ;
389 -> 390 ;
391 [label="entropy = 0.0\nsamples = 5\nvalue = [0, 0, 0, 5, 0, 0]"] ;
390 -> 391 ;
392 [label="fixed acidity <= 9.15\nentropy = 0.996\nsamples = 13\nvalue = [0, 0, 7, 6, 0, 0]"] ;
390 -> 392 ;
393 [label="entropy = 0.0\nsamples = 4\nvalue = [0, 0, 4, 0, 0, 0]"] ;
392 -> 393 ;
394 [label="fixed acidity <= 9.75\nentropy = 0.918\nsamples = 9\nvalue = [0, 0, 3, 6, 0, 0]"] ;
392 -> 394 ;
395 [label="entropy = 0.0\nsamples = 5\nvalue = [0, 0, 0, 5, 0, 0]"] ;
394 -> 395 ;
396 [label="density <= 0.998\nentropy = 0.811\nsamples = 4\nvalue = [0, 0, 3, 1, 0, 0]"] ;
394 -> 396 ;
397 [label="entropy = 0.0\nsamples = 3\nvalue = [0, 0, 3, 0, 0, 0]"] ;
396 -> 397 ;
398 [label="entropy = 0.0\nsamples = 1\nvalue = [0, 0, 0, 1, 0, 0]"] ;
396 -> 398 ;
399 [label="entropy = 0.0\nsamples = 4\nvalue = [0, 0, 4, 0, 0, 0]"] ;
389 -> 399 ;
400 [label="sulphates <= 0.625\nentropy = 1.959\nsamples = 12\nvalue = [0, 0, 3, 4, 3, 2]"] ;
388 -> 400 ;
401 [label="entropy = 0.0\nsamples = 3\nvalue = [0, 0, 3, 0, 0, 0]"] ;
400 -> 401 ;
402 [label="volatile acidity <= 0.395\nentropy = 1.53\nsamples = 9\nvalue = [0, 0, 0, 4, 3, 2]"] ;
400 -> 402 ;
403 [label="fixed acidity <= 11.2\nentropy = 0.971\nsamples = 5\nvalue = [0, 0, 0, 0, 3, 2]"] ;
402 -> 403 ;
404 [label="entropy = 0.0\nsamples = 2\nvalue = [0, 0, 0, 0, 0, 2]"] ;
403 -> 404 ;
405 [label="entropy = 0.0\nsamples = 3\nvalue = [0, 0, 0, 0, 3, 0]"] ;
403 -> 405 ;
406 [label="entropy = 0.0\nsamples = 4\nvalue = [0, 0, 0, 4, 0, 0]"] ;
402 -> 406 ;
407 [label="residual sugar <= 3.95\nentropy = 1.339\nsamples = 55\nvalue = [0, 0, 5, 28, 22, 0]"] ;
383 -> 407 ;
408 [label="free sulfur dioxide <= 24.5\nentropy = 1.192\nsamples = 51\nvalue = [0, 0, 2, 27, 22, 0]"] ;
407 -> 408 ;
409 [label="citric acid <= 0.475\nentropy = 0.998\nsamples = 40\nvalue = [0, 0, 0, 19, 21, 0]"] ;
408 -> 409 ;
410 [label="volatile acidity <= 0.38\nentropy = 0.863\nsamples = 21\nvalue = [0, 0, 0, 6, 15, 0]"] ;
409 -> 410 ;
411 [label="density <= 0.994\nentropy = 0.414\nsamples = 12\nvalue = [0, 0, 0, 1, 11, 0]"] ;
410 -> 411 ;
412 [label="entropy = 0.0\nsamples = 1\nvalue = [0, 0, 0, 1, 0, 0]"] ;
411 -> 412 ;
413 [label="entropy = 0.0\nsamples = 11\nvalue = [0, 0, 0, 0, 11, 0]"] ;
411 -> 413 ;
414 [label="alcohol <= 11.0\nentropy = 0.991\nsamples = 9\nvalue = [0, 0, 0, 5, 4, 0]"] ;
410 -> 414 ;
415 [label="entropy = 0.0\nsamples = 3\nvalue = [0, 0, 0, 3, 0, 0]"] ;
414 -> 415 ;
416 [label="citric acid <= 0.435\nentropy = 0.918\nsamples = 6\nvalue = [0, 0, 0, 2, 4, 0]"] ;
414 -> 416 ;
417 [label="entropy = 0.0\nsamples = 4\nvalue = [0, 0, 0, 0, 4, 0]"] ;
416 -> 417 ;
418 [label="entropy = 0.0\nsamples = 2\nvalue = [0, 0, 0, 2, 0, 0]"] ;
416 -> 418 ;
419 [label="free sulfur dioxide <= 5.5\nentropy = 0.9\nsamples = 19\nvalue = [0, 0, 0, 13, 6, 0]"] ;
409 -> 419 ;
420 [label="entropy = 0.0\nsamples = 4\nvalue = [0, 0, 0, 0, 4, 0]"] ;
419 -> 420 ;
421 [label="citric acid <= 0.65\nentropy = 0.567\nsamples = 15\nvalue = [0, 0, 0, 13, 2, 0]"] ;
419 -> 421 ;
422 [label="entropy = 0.0\nsamples = 13\nvalue = [0, 0, 0, 13, 0, 0]"] ;
421 -> 422 ;
423 [label="entropy = 0.0\nsamples = 2\nvalue = [0, 0, 0, 0, 2, 0]"] ;
421 -> 423 ;
424 [label="free sulfur dioxide <= 47.5\nentropy = 1.096\nsamples = 11\nvalue = [0, 0, 2, 8, 1, 0]"] ;
408 -> 424 ;
425 [label="total sulfur dioxide <= 62.5\nentropy = 0.722\nsamples = 10\nvalue = [0, 0, 2, 8, 0, 0]"